digraph Tree {
node [shape=box, style="filled, rounded", color="black", fontname="serif"] ;
edge [fontname="serif"] ;
rankdir=LR ;
0 [label=<Q_Hou_Dem &le; 385.71<br/>gini = 0.695<br/>samples = 34944<br/>value = [14593, 5408, 10568, 4375]<br/>class = Modus 0>, fillcolor="#fbeade"] ;
1 [label=<Q_Hou_Dem &le; 135.22<br/>gini = 0.418<br/>samples = 18047<br/>value = [13411, 1463, 471, 2702]<br/>class = Modus 0>, fillcolor="#eda775"] ;
0 -> 1 [labeldistance=2.5, labelangle=-45, headlabel="True"] ;
2 [label=<Q_TWW &le; 525.0<br/>gini = 0.309<br/>samples = 13897<br/>value = [11358, 235, 245, 2059]<br/>class = Modus 0>, fillcolor="#eb9c63"] ;
1 -> 2 ;
3 [label=<P_PV &le; 47.88<br/>gini = 0.268<br/>samples = 13319<br/>value = [11287, 234, 242, 1556]<br/>class = Modus 0>, fillcolor="#e9975b"] ;
2 -> 3 ;
4 [label=<Q_Hou_Dem &le; 96.97<br/>gini = 0.073<br/>samples = 5329<br/>value = [5129, 50, 0, 150]<br/>class = Modus 0>, fillcolor="#e68641"] ;
3 -> 4 ;
5 [label=<gini = 0.059<br/>samples = 5026<br/>value = [4873, 15, 0, 138]<br/>class = Modus 0>, fillcolor="#e6853f"] ;
4 -> 5 ;
6 [label=<gini = 0.271<br/>samples = 303<br/>value = [256, 35, 0, 12]<br/>class = Modus 0>, fillcolor="#ea975c"] ;
4 -> 6 ;
7 [label=<P_EL_Dem &le; 125.49<br/>gini = 0.374<br/>samples = 7990<br/>value = [6158, 184, 242, 1406]<br/>class = Modus 0>, fillcolor="#eca470"] ;
3 -> 7 ;
8 [label=<Q_Hou_Dem &le; 0.28<br/>gini = 0.438<br/>samples = 4078<br/>value = [2917, 82, 182, 897]<br/>class = Modus 0>, fillcolor="#eeaf81"] ;
7 -> 8 ;
9 [label=<P_PV &le; 451.305<br/>gini = 0.339<br/>samples = 2964<br/>value = [2330, 11, 7, 616]<br/>class = Modus 0>, fillcolor="#eca36e"] ;
8 -> 9 ;
10 [label=<P_PV &le; 197.405<br/>gini = 0.41<br/>samples = 1403<br/>value = [1003, 4, 2, 394]<br/>class = Modus 0>, fillcolor="#efb387"] ;
9 -> 10 ;
11 [label=<gini = 0.341<br/>samples = 699<br/>value = [548, 3, 0, 148]<br/>class = Modus 0>, fillcolor="#eca46f"] ;
10 -> 11 ;
12 [label=<gini = 0.46<br/>samples = 704<br/>value = [455, 1, 2, 246]<br/>class = Modus 0>, fillcolor="#f3c6a5"] ;
10 -> 12 ;
13 [label=<gini = 0.257<br/>samples = 1561<br/>value = [1327, 7, 5, 222]<br/>class = Modus 0>, fillcolor="#ea975c"] ;
9 -> 13 ;
14 [label=<P_PV &le; 690.02<br/>gini = 0.63<br/>samples = 1114<br/>value = [587, 71, 175, 281]<br/>class = Modus 0>, fillcolor="#f5d1b6"] ;
8 -> 14 ;
15 [label=<P_PV &le; 231.395<br/>gini = 0.671<br/>samples = 809<br/>value = [364, 50, 165, 230]<br/>class = Modus 0>, fillcolor="#f9e2d1"] ;
14 -> 15 ;
16 [label=<gini = 0.493<br/>samples = 281<br/>value = [189, 19, 11, 62]<br/>class = Modus 0>, fillcolor="#f0b68c"] ;
15 -> 16 ;
17 [label=<gini = 0.7<br/>samples = 528<br/>value = [175, 31, 154, 168]<br/>class = Modus 0>, fillcolor="#fefdfb"] ;
15 -> 17 ;
18 [label=<gini = 0.432<br/>samples = 305<br/>value = [223, 21, 10, 51]<br/>class = Modus 0>, fillcolor="#edaa79"] ;
14 -> 18 ;
19 [label=<Q_Hou_Dem &le; 0.01<br/>gini = 0.296<br/>samples = 3912<br/>value = [3241, 102, 60, 509]<br/>class = Modus 0>, fillcolor="#ea9a60"] ;
7 -> 19 ;
20 [label=<Q_TWW &le; 52.5<br/>gini = 0.206<br/>samples = 2645<br/>value = [2339, 8, 4, 294]<br/>class = Modus 0>, fillcolor="#e89153"] ;
19 -> 20 ;
21 [label=<gini = 0.177<br/>samples = 2012<br/>value = [1815, 5, 1, 191]<br/>class = Modus 0>, fillcolor="#e88f4e"] ;
20 -> 21 ;
22 [label=<P_PV &le; 408.19<br/>gini = 0.288<br/>samples = 633<br/>value = [524, 3, 3, 103]<br/>class = Modus 0>, fillcolor="#ea9b62"] ;
20 -> 22 ;
23 [label=<gini = 0.143<br/>samples = 286<br/>value = [264, 1, 0, 21]<br/>class = Modus 0>, fillcolor="#e78b49"] ;
22 -> 23 ;
24 [label=<gini = 0.383<br/>samples = 347<br/>value = [260, 2, 3, 82]<br/>class = Modus 0>, fillcolor="#eeaa7a"] ;
22 -> 24 ;
25 [label=<P_PV &le; 361.25<br/>gini = 0.457<br/>samples = 1267<br/>value = [902, 94, 56, 215]<br/>class = Modus 0>, fillcolor="#eead7e"] ;
19 -> 25 ;
26 [label=<gini = 0.247<br/>samples = 378<br/>value = [326, 27, 2, 23]<br/>class = Modus 0>, fillcolor="#e99456"] ;
25 -> 26 ;
27 [label=<P_EL_Dem &le; 582.81<br/>gini = 0.524<br/>samples = 889<br/>value = [576, 67, 54, 192]<br/>class = Modus 0>, fillcolor="#f1ba92"] ;
25 -> 27 ;
28 [label=<gini = 0.57<br/>samples = 746<br/>value = [444, 59, 54, 189]<br/>class = Modus 0>, fillcolor="#f3c5a4"] ;
27 -> 28 ;
29 [label=<gini = 0.144<br/>samples = 143<br/>value = [132, 8, 0, 3]<br/>class = Modus 0>, fillcolor="#e78b49"] ;
27 -> 29 ;
30 [label=<Q_TWW &le; 1067.5<br/>gini = 0.228<br/>samples = 578<br/>value = [71, 1, 3, 503]<br/>class = Modus 3>, fillcolor="#dd56e9"] ;
2 -> 30 ;
31 [label=<gini = 0.471<br/>samples = 139<br/>value = [46, 0, 3, 90]<br/>class = Modus 3>, fillcolor="#eca1f3"] ;
30 -> 31 ;
32 [label=<gini = 0.112<br/>samples = 439<br/>value = [25, 1, 0, 413]<br/>class = Modus 3>, fillcolor="#da45e7"] ;
30 -> 32 ;
33 [label=<Q_TWW &le; 2502.5<br/>gini = 0.641<br/>samples = 4150<br/>value = [2053, 1228, 226, 643]<br/>class = Modus 0>, fillcolor="#f8dbc7"] ;
1 -> 33 ;
34 [label=<P_PV &le; 127.415<br/>gini = 0.631<br/>samples = 4056<br/>value = [2052, 1228, 226, 550]<br/>class = Modus 0>, fillcolor="#f7dac5"] ;
33 -> 34 ;
35 [label=<Q_TWW &le; 525.0<br/>gini = 0.539<br/>samples = 2595<br/>value = [1548, 824, 59, 164]<br/>class = Modus 0>, fillcolor="#f4cbae"] ;
34 -> 35 ;
36 [label=<Q_Hou_Dem &le; 253.08<br/>gini = 0.532<br/>samples = 2535<br/>value = [1527, 807, 56, 145]<br/>class = Modus 0>, fillcolor="#f4caac"] ;
35 -> 36 ;
37 [label=<P_EL_Dem &le; 58.75<br/>gini = 0.425<br/>samples = 1254<br/>value = [913, 256, 20, 65]<br/>class = Modus 0>, fillcolor="#eeac7d"] ;
36 -> 37 ;
38 [label=<gini = 0.488<br/>samples = 594<br/>value = [393, 158, 9, 34]<br/>class = Modus 0>, fillcolor="#f1bb94"] ;
37 -> 38 ;
39 [label=<gini = 0.355<br/>samples = 660<br/>value = [520, 98, 11, 31]<br/>class = Modus 0>, fillcolor="#eba06a"] ;
37 -> 39 ;
40 [label=<gini = 0.581<br/>samples = 1281<br/>value = [614, 551, 36, 80]<br/>class = Modus 0>, fillcolor="#fdf4ee"] ;
36 -> 40 ;
41 [label=<gini = 0.694<br/>samples = 60<br/>value = [21, 17, 3, 19]<br/>class = Modus 0>, fillcolor="#fef9f5"] ;
35 -> 41 ;
42 [label=<P_EL_Dem &le; 224.685<br/>gini = 0.722<br/>samples = 1461<br/>value = [504, 404, 167, 386]<br/>class = Modus 0>, fillcolor="#fdf3ec"] ;
34 -> 42 ;
43 [label=<P_PV &le; 275.87<br/>gini = 0.728<br/>samples = 790<br/>value = [170, 190, 136, 294]<br/>class = Modus 3>, fillcolor="#f8ddfa"] ;
42 -> 43 ;
44 [label=<Q_Hou_Dem &le; 255.275<br/>gini = 0.705<br/>samples = 355<br/>value = [102, 118, 24, 111]<br/>class = Modus 1>, fillcolor="#fafef9"] ;
43 -> 44 ;
45 [label=<P_EL_Dem &le; 35.31<br/>gini = 0.696<br/>samples = 183<br/>value = [71, 38, 15, 59]<br/>class = Modus 0>, fillcolor="#fcf3ec"] ;
44 -> 45 ;
46 [label=<gini = 0.518<br/>samples = 23<br/>value = [1, 2, 5, 15]<br/>class = Modus 3>, fillcolor="#e991f1"] ;
45 -> 46 ;
47 [label=<gini = 0.678<br/>samples = 160<br/>value = [70, 36, 10, 44]<br/>class = Modus 0>, fillcolor="#f9e3d3"] ;
45 -> 47 ;
48 [label=<gini = 0.657<br/>samples = 172<br/>value = [31, 80, 9, 52]<br/>class = Modus 1>, fillcolor="#d4f9d1"] ;
44 -> 48 ;
49 [label=<P_PV &le; 670.46<br/>gini = 0.705<br/>samples = 435<br/>value = [68, 72, 112, 183]<br/>class = Modus 3>, fillcolor="#f6d3f9"] ;
43 -> 49 ;
50 [label=<P_EL_Dem &le; 114.175<br/>gini = 0.662<br/>samples = 330<br/>value = [30, 47, 97, 156]<br/>class = Modus 3>, fillcolor="#f5cdf8"] ;
49 -> 50 ;
51 [label=<gini = 0.64<br/>samples = 195<br/>value = [17, 16, 77, 85]<br/>class = Modus 3>, fillcolor="#fcf2fd"] ;
50 -> 51 ;
52 [label=<gini = 0.639<br/>samples = 135<br/>value = [13, 31, 20, 71]<br/>class = Modus 3>, fillcolor="#f0b3f5"] ;
50 -> 52 ;
53 [label=<gini = 0.726<br/>samples = 105<br/>value = [38, 25, 15, 27]<br/>class = Modus 0>, fillcolor="#fbede3"] ;
49 -> 53 ;
54 [label=<P_PV &le; 454.14<br/>gini = 0.63<br/>samples = 671<br/>value = [334, 214, 31, 92]<br/>class = Modus 0>, fillcolor="#f8decb"] ;
42 -> 54 ;
55 [label=<P_PV &le; 186.335<br/>gini = 0.566<br/>samples = 475<br/>value = [262, 167, 11, 35]<br/>class = Modus 0>, fillcolor="#f7d8c2"] ;
54 -> 55 ;
56 [label=<gini = 0.588<br/>samples = 106<br/>value = [45, 50, 1, 10]<br/>class = Modus 1>, fillcolor="#f0fdef"] ;
55 -> 56 ;
57 [label=<Q_Hou_Dem &le; 250.27<br/>gini = 0.548<br/>samples = 369<br/>value = [217, 117, 10, 25]<br/>class = Modus 0>, fillcolor="#f5cdb0"] ;
55 -> 57 ;
58 [label=<gini = 0.442<br/>samples = 196<br/>value = [139, 45, 3, 9]<br/>class = Modus 0>, fillcolor="#efb184"] ;
57 -> 58 ;
59 [label=<gini = 0.613<br/>samples = 173<br/>value = [78, 72, 7, 16]<br/>class = Modus 0>, fillcolor="#fdf8f3"] ;
57 -> 59 ;
60 [label=<P_EL_Dem &le; 484.055<br/>gini = 0.713<br/>samples = 196<br/>value = [72, 47, 20, 57]<br/>class = Modus 0>, fillcolor="#fcf1ea"] ;
54 -> 60 ;
61 [label=<gini = 0.712<br/>samples = 133<br/>value = [29, 34, 17, 53]<br/>class = Modus 3>, fillcolor="#f7d9fa"] ;
60 -> 61 ;
62 [label=<gini = 0.485<br/>samples = 63<br/>value = [43, 13, 3, 4]<br/>class = Modus 0>, fillcolor="#efb388"] ;
60 -> 62 ;
63 [label=<gini = 0.021<br/>samples = 94<br/>value = [1, 0, 0, 93]<br/>class = Modus 3>, fillcolor="#d73be5"] ;
33 -> 63 ;
64 [label=<Q_Hou_Dem &le; 783.3<br/>gini = 0.574<br/>samples = 16897<br/>value = [1182, 3945, 10097, 1673]<br/>class = Modus 2>, fillcolor="#a1d0f3"] ;
0 -> 64 [labeldistance=2.5, labelangle=45, headlabel="False"] ;
65 [label=<Q_TWW &le; 2502.5<br/>gini = 0.569<br/>samples = 6272<br/>value = [676, 3858, 1112, 626]<br/>class = Modus 1>, fillcolor="#9df196"] ;
64 -> 65 ;
66 [label=<Q_Hou_Dem &le; 563.315<br/>gini = 0.553<br/>samples = 6131<br/>value = [676, 3858, 1112, 485]<br/>class = Modus 1>, fillcolor="#9af193"] ;
65 -> 66 ;
67 [label=<Q_Hou_Dem &le; 477.79<br/>gini = 0.709<br/>samples = 2672<br/>value = [615, 1069, 681, 307]<br/>class = Modus 1>, fillcolor="#dbfad8"] ;
66 -> 67 ;
68 [label=<Q_Hou_Dem &le; 389.085<br/>gini = 0.723<br/>samples = 1294<br/>value = [374, 448, 311, 161]<br/>class = Modus 1>, fillcolor="#f0fdef"] ;
67 -> 68 ;
69 [label=<gini = 0.555<br/>samples = 38<br/>value = [4, 24, 5, 5]<br/>class = Modus 1>, fillcolor="#95f08d"] ;
68 -> 69 ;
70 [label=<P_PV &le; 138.09<br/>gini = 0.724<br/>samples = 1256<br/>value = [370, 424, 306, 156]<br/>class = Modus 1>, fillcolor="#f4fdf3"] ;
68 -> 70 ;
71 [label=<gini = 0.7<br/>samples = 947<br/>value = [319, 338, 218, 72]<br/>class = Modus 1>, fillcolor="#f9fef9"] ;
70 -> 71 ;
72 [label=<gini = 0.74<br/>samples = 309<br/>value = [51, 86, 88, 84]<br/>class = Modus 2>, fillcolor="#fdfeff"] ;
70 -> 72 ;
73 [label=<P_PV &le; 399.14<br/>gini = 0.683<br/>samples = 1378<br/>value = [241, 621, 370, 146]<br/>class = Modus 1>, fillcolor="#d1f9ce"] ;
67 -> 73 ;
74 [label=<P_PV &le; 73.325<br/>gini = 0.674<br/>samples = 1297<br/>value = [238, 607, 328, 124]<br/>class = Modus 1>, fillcolor="#caf8c6"] ;
73 -> 74 ;
75 [label=<gini = 0.659<br/>samples = 923<br/>value = [193, 447, 223, 60]<br/>class = Modus 1>, fillcolor="#c4f7c0"] ;
74 -> 75 ;
76 [label=<gini = 0.694<br/>samples = 374<br/>value = [45, 160, 105, 64]<br/>class = Modus 1>, fillcolor="#d9fad7"] ;
74 -> 76 ;
77 [label=<gini = 0.626<br/>samples = 81<br/>value = [3, 14, 42, 22]<br/>class = Modus 2>, fillcolor="#bcdef6"] ;
73 -> 77 ;
78 [label=<Q_Hou_Dem &le; 766.93<br/>gini = 0.331<br/>samples = 3459<br/>value = [61, 2789, 431, 178]<br/>class = Modus 1>, fillcolor="#70eb65"] ;
66 -> 78 ;
79 [label=<P_PV &le; 403.61<br/>gini = 0.29<br/>samples = 3158<br/>value = [52, 2637, 327, 142]<br/>class = Modus 1>, fillcolor="#69ea5d"] ;
78 -> 79 ;
80 [label=<P_EL_Dem &le; 36.89<br/>gini = 0.271<br/>samples = 3078<br/>value = [52, 2608, 291, 127]<br/>class = Modus 1>, fillcolor="#66e95a"] ;
79 -> 80 ;
81 [label=<Q_Hou_Dem &le; 579.75<br/>gini = 0.126<br/>samples = 786<br/>value = [12, 734, 28, 12]<br/>class = Modus 1>, fillcolor="#54e747"] ;
80 -> 81 ;
82 [label=<gini = 0.547<br/>samples = 49<br/>value = [6, 31, 9, 3]<br/>class = Modus 1>, fillcolor="#9af192"] ;
81 -> 82 ;
83 [label=<gini = 0.089<br/>samples = 737<br/>value = [6, 703, 19, 9]<br/>class = Modus 1>, fillcolor="#50e642"] ;
81 -> 83 ;
84 [label=<gini = 0.315<br/>samples = 2292<br/>value = [40, 1874, 263, 115]<br/>class = Modus 1>, fillcolor="#6dea62"] ;
80 -> 84 ;
85 [label=<gini = 0.631<br/>samples = 80<br/>value = [0, 29, 36, 15]<br/>class = Modus 2>, fillcolor="#e4f2fb"] ;
79 -> 85 ;
86 [label=<P_EL_Dem &le; 55.515<br/>gini = 0.61<br/>samples = 301<br/>value = [9, 152, 104, 36]<br/>class = Modus 1>, fillcolor="#d2f9cf"] ;
78 -> 86 ;
87 [label=<gini = 0.452<br/>samples = 106<br/>value = [2, 75, 22, 7]<br/>class = Modus 1>, fillcolor="#8bef82"] ;
86 -> 87 ;
88 [label=<gini = 0.644<br/>samples = 195<br/>value = [7, 77, 82, 29]<br/>class = Modus 2>, fillcolor="#f7fbfe"] ;
86 -> 88 ;
89 [label=<gini = 0.0<br/>samples = 141<br/>value = [0, 0, 0, 141]<br/>class = Modus 3>, fillcolor="#d739e5"] ;
65 -> 89 ;
90 [label=<Q_TWW &le; 2502.5<br/>gini = 0.273<br/>samples = 10625<br/>value = [506, 87, 8985, 1047]<br/>class = Modus 2>, fillcolor="#5baee9"] ;
64 -> 90 ;
91 [label=<Q_TWW &le; 52.5<br/>gini = 0.247<br/>samples = 10419<br/>value = [506, 87, 8985, 841]<br/>class = Modus 2>, fillcolor="#57ace9"] ;
90 -> 91 ;
92 [label=<T_Air &le; 272.425<br/>gini = 0.214<br/>samples = 8124<br/>value = [378, 55, 7174, 517]<br/>class = Modus 2>, fillcolor="#52a9e8"] ;
91 -> 92 ;
93 [label=<gini = 0.129<br/>samples = 2349<br/>value = [36, 1, 2189, 123]<br/>class = Modus 2>, fillcolor="#47a4e7"] ;
92 -> 93 ;
94 [label=<P_EL_Dem &le; 50.88<br/>gini = 0.247<br/>samples = 5775<br/>value = [342, 54, 4985, 394]<br/>class = Modus 2>, fillcolor="#56abe9"] ;
92 -> 94 ;
95 [label=<gini = 0.181<br/>samples = 2521<br/>value = [96, 17, 2276, 132]<br/>class = Modus 2>, fillcolor="#4da7e8"] ;
94 -> 95 ;
96 [label=<Q_Hou_Dem &le; 838.175<br/>gini = 0.295<br/>samples = 3254<br/>value = [246, 37, 2709, 262]<br/>class = Modus 2>, fillcolor="#5dafea"] ;
94 -> 96 ;
97 [label=<gini = 0.426<br/>samples = 503<br/>value = [45, 29, 373, 56]<br/>class = Modus 2>, fillcolor="#73baed"] ;
96 -> 97 ;
98 [label=<gini = 0.268<br/>samples = 2751<br/>value = [201, 8, 2336, 206]<br/>class = Modus 2>, fillcolor="#59ade9"] ;
96 -> 98 ;
99 [label=<Q_Hou_Dem &le; 815.565<br/>gini = 0.354<br/>samples = 2295<br/>value = [128, 32, 1811, 324]<br/>class = Modus 2>, fillcolor="#6ab5eb"] ;
91 -> 99 ;
100 [label=<gini = 0.544<br/>samples = 193<br/>value = [7, 23, 121, 42]<br/>class = Modus 2>, fillcolor="#97ccf1"] ;
99 -> 100 ;
101 [label=<gini = 0.332<br/>samples = 2102<br/>value = [121, 9, 1690, 282]<br/>class = Modus 2>, fillcolor="#66b3eb"] ;
99 -> 101 ;
102 [label=<gini = 0.0<br/>samples = 206<br/>value = [0, 0, 0, 206]<br/>class = Modus 3>, fillcolor="#d739e5"] ;
90 -> 102 ;
}
