digraph Tree {
node [shape=box, style="filled, rounded", color="black", fontname="serif"] ;
edge [fontname="serif"] ;
rankdir=LR ;
0 [label=<Q_Hou_Dem &le; 385.71<br/>gini = 0.695<br/>samples = 34944<br/>value = [14593, 5408, 10568, 4375]<br/>class = Modus 0>, fillcolor="#fbeade"] ;
1 [label=<Q_TWW &le; 525.0<br/>gini = 0.418<br/>samples = 18047<br/>value = [13411, 1463, 471, 2702]<br/>class = Modus 0>, fillcolor="#eda775"] ;
0 -> 1 [labeldistance=2.5, labelangle=-45, headlabel="True"] ;
2 [label=<T_Air &le; 285.76<br/>gini = 0.385<br/>samples = 17290<br/>value = [13314, 1441, 463, 2072]<br/>class = Modus 0>, fillcolor="#eca26d"] ;
1 -> 2 ;
3 [label=<Q_Hou_Dem &le; 130.07<br/>gini = 0.567<br/>samples = 4473<br/>value = [2694, 1049, 213, 517]<br/>class = Modus 0>, fillcolor="#f3c2a0"] ;
2 -> 3 ;
4 [label=<P_PV &le; 36.76<br/>gini = 0.263<br/>samples = 1245<br/>value = [1061, 44, 24, 116]<br/>class = Modus 0>, fillcolor="#e99659"] ;
3 -> 4 ;
5 [label=<gini = 0.08<br/>samples = 924<br/>value = [886, 15, 0, 23]<br/>class = Modus 0>, fillcolor="#e68641"] ;
4 -> 5 ;
6 [label=<P_EL_Dem &le; 48.53<br/>gini = 0.605<br/>samples = 321<br/>value = [175, 29, 24, 93]<br/>class = Modus 0>, fillcolor="#f6d2b8"] ;
4 -> 6 ;
7 [label=<gini = 0.657<br/>samples = 111<br/>value = [38, 9, 14, 50]<br/>class = Modus 3>, fillcolor="#f8defb"] ;
6 -> 7 ;
8 [label=<gini = 0.521<br/>samples = 210<br/>value = [137, 20, 10, 43]<br/>class = Modus 0>, fillcolor="#f0b890"] ;
6 -> 8 ;
9 [label=<Q_Hou_Dem &le; 253.105<br/>gini = 0.628<br/>samples = 3228<br/>value = [1633, 1005, 189, 401]<br/>class = Modus 0>, fillcolor="#f8dbc7"] ;
3 -> 9 ;
10 [label=<P_PV &le; 131.76<br/>gini = 0.59<br/>samples = 1534<br/>value = [900, 309, 101, 224]<br/>class = Modus 0>, fillcolor="#f2c29f"] ;
9 -> 10 ;
11 [label=<gini = 0.443<br/>samples = 921<br/>value = [656, 199, 15, 51]<br/>class = Modus 0>, fillcolor="#efaf82"] ;
10 -> 11 ;
12 [label=<gini = 0.71<br/>samples = 613<br/>value = [244, 110, 86, 173]<br/>class = Modus 0>, fillcolor="#fbebdf"] ;
10 -> 12 ;
13 [label=<P_PV &le; 229.5<br/>gini = 0.63<br/>samples = 1694<br/>value = [733, 696, 88, 177]<br/>class = Modus 0>, fillcolor="#fefaf8"] ;
9 -> 13 ;
14 [label=<gini = 0.586<br/>samples = 1344<br/>value = [632, 581, 39, 92]<br/>class = Modus 0>, fillcolor="#fdf7f2"] ;
13 -> 14 ;
15 [label=<gini = 0.73<br/>samples = 350<br/>value = [101, 115, 49, 85]<br/>class = Modus 1>, fillcolor="#f5fef4"] ;
13 -> 15 ;
16 [label=<Q_Hou_Dem &le; 0.005<br/>gini = 0.297<br/>samples = 12817<br/>value = [10620, 392, 250, 1555]<br/>class = Modus 0>, fillcolor="#ea9a60"] ;
2 -> 16 ;
17 [label=<P_PV &le; 50.855<br/>gini = 0.193<br/>samples = 9505<br/>value = [8483, 21, 10, 991]<br/>class = Modus 0>, fillcolor="#e89051"] ;
16 -> 17 ;
18 [label=<gini = 0.053<br/>samples = 4002<br/>value = [3894, 3, 0, 105]<br/>class = Modus 0>, fillcolor="#e6843e"] ;
17 -> 18 ;
19 [label=<P_EL_Dem &le; 125.485<br/>gini = 0.279<br/>samples = 5503<br/>value = [4589, 18, 10, 886]<br/>class = Modus 0>, fillcolor="#ea9a60"] ;
17 -> 19 ;
20 [label=<gini = 0.335<br/>samples = 2890<br/>value = [2281, 10, 6, 593]<br/>class = Modus 0>, fillcolor="#eca26d"] ;
19 -> 20 ;
21 [label=<gini = 0.207<br/>samples = 2613<br/>value = [2308, 8, 4, 293]<br/>class = Modus 0>, fillcolor="#e89253"] ;
19 -> 21 ;
22 [label=<P_PV &le; 126.995<br/>gini = 0.537<br/>samples = 3312<br/>value = [2137, 371, 240, 564]<br/>class = Modus 0>, fillcolor="#f0b78e"] ;
16 -> 22 ;
23 [label=<Q_Hou_Dem &le; 239.405<br/>gini = 0.361<br/>samples = 1038<br/>value = [812, 159, 8, 59]<br/>class = Modus 0>, fillcolor="#eca16c"] ;
22 -> 23 ;
24 [label=<gini = 0.276<br/>samples = 893<br/>value = [753, 90, 4, 46]<br/>class = Modus 0>, fillcolor="#ea975c"] ;
23 -> 24 ;
25 [label=<gini = 0.599<br/>samples = 145<br/>value = [59, 69, 4, 13]<br/>class = Modus 1>, fillcolor="#eafce8"] ;
23 -> 25 ;
26 [label=<P_EL_Dem &le; 162.46<br/>gini = 0.592<br/>samples = 2274<br/>value = [1325, 212, 232, 505]<br/>class = Modus 0>, fillcolor="#f3c5a3"] ;
22 -> 26 ;
27 [label=<gini = 0.666<br/>samples = 1174<br/>value = [550, 96, 196, 332]<br/>class = Modus 0>, fillcolor="#f8decc"] ;
26 -> 27 ;
28 [label=<gini = 0.467<br/>samples = 1100<br/>value = [775, 116, 36, 173]<br/>class = Modus 0>, fillcolor="#eead7e"] ;
26 -> 28 ;
29 [label=<Q_Hou_Dem &le; 211.84<br/>gini = 0.29<br/>samples = 757<br/>value = [97, 22, 8, 630]<br/>class = Modus 3>, fillcolor="#df5fea"] ;
1 -> 29 ;
30 [label=<gini = 0.225<br/>samples = 633<br/>value = [76, 2, 3, 552]<br/>class = Modus 3>, fillcolor="#dd56e9"] ;
29 -> 30 ;
31 [label=<Q_TWW &le; 2502.5<br/>gini = 0.548<br/>samples = 124<br/>value = [21, 20, 5, 78]<br/>class = Modus 3>, fillcolor="#e991f1"] ;
29 -> 31 ;
32 [label=<gini = 0.708<br/>samples = 68<br/>value = [21, 20, 5, 22]<br/>class = Modus 3>, fillcolor="#fefbfe"] ;
31 -> 32 ;
33 [label=<gini = 0.0<br/>samples = 56<br/>value = [0, 0, 0, 56]<br/>class = Modus 3>, fillcolor="#d739e5"] ;
31 -> 33 ;
34 [label=<Q_Hou_Dem &le; 783.3<br/>gini = 0.574<br/>samples = 16897<br/>value = [1182, 3945, 10097, 1673]<br/>class = Modus 2>, fillcolor="#a1d0f3"] ;
0 -> 34 [labeldistance=2.5, labelangle=45, headlabel="False"] ;
35 [label=<Q_TWW &le; 2502.5<br/>gini = 0.569<br/>samples = 6272<br/>value = [676, 3858, 1112, 626]<br/>class = Modus 1>, fillcolor="#9df196"] ;
34 -> 35 ;
36 [label=<Q_Hou_Dem &le; 563.315<br/>gini = 0.553<br/>samples = 6131<br/>value = [676, 3858, 1112, 485]<br/>class = Modus 1>, fillcolor="#9af193"] ;
35 -> 36 ;
37 [label=<Q_Hou_Dem &le; 477.79<br/>gini = 0.709<br/>samples = 2672<br/>value = [615, 1069, 681, 307]<br/>class = Modus 1>, fillcolor="#dbfad8"] ;
36 -> 37 ;
38 [label=<P_PV &le; 138.09<br/>gini = 0.723<br/>samples = 1294<br/>value = [374, 448, 311, 161]<br/>class = Modus 1>, fillcolor="#f0fdef"] ;
37 -> 38 ;
39 [label=<gini = 0.7<br/>samples = 971<br/>value = [322, 354, 220, 75]<br/>class = Modus 1>, fillcolor="#f6fef5"] ;
38 -> 39 ;
40 [label=<gini = 0.739<br/>samples = 323<br/>value = [52, 94, 91, 86]<br/>class = Modus 1>, fillcolor="#fdfffc"] ;
38 -> 40 ;
41 [label=<P_PV &le; 399.14<br/>gini = 0.683<br/>samples = 1378<br/>value = [241, 621, 370, 146]<br/>class = Modus 1>, fillcolor="#d1f9ce"] ;
37 -> 41 ;
42 [label=<gini = 0.674<br/>samples = 1297<br/>value = [238, 607, 328, 124]<br/>class = Modus 1>, fillcolor="#caf8c6"] ;
41 -> 42 ;
43 [label=<gini = 0.626<br/>samples = 81<br/>value = [3, 14, 42, 22]<br/>class = Modus 2>, fillcolor="#bcdef6"] ;
41 -> 43 ;
44 [label=<Q_Hou_Dem &le; 766.93<br/>gini = 0.331<br/>samples = 3459<br/>value = [61, 2789, 431, 178]<br/>class = Modus 1>, fillcolor="#70eb65"] ;
36 -> 44 ;
45 [label=<P_PV &le; 403.61<br/>gini = 0.29<br/>samples = 3158<br/>value = [52, 2637, 327, 142]<br/>class = Modus 1>, fillcolor="#69ea5d"] ;
44 -> 45 ;
46 [label=<gini = 0.271<br/>samples = 3078<br/>value = [52, 2608, 291, 127]<br/>class = Modus 1>, fillcolor="#66e95a"] ;
45 -> 46 ;
47 [label=<gini = 0.631<br/>samples = 80<br/>value = [0, 29, 36, 15]<br/>class = Modus 2>, fillcolor="#e4f2fb"] ;
45 -> 47 ;
48 [label=<P_PV &le; 214.035<br/>gini = 0.61<br/>samples = 301<br/>value = [9, 152, 104, 36]<br/>class = Modus 1>, fillcolor="#d2f9cf"] ;
44 -> 48 ;
49 [label=<gini = 0.601<br/>samples = 280<br/>value = [9, 150, 87, 34]<br/>class = Modus 1>, fillcolor="#c3f7be"] ;
48 -> 49 ;
50 [label=<gini = 0.327<br/>samples = 21<br/>value = [0, 2, 17, 2]<br/>class = Modus 2>, fillcolor="#63b2ea"] ;
48 -> 50 ;
51 [label=<gini = 0.0<br/>samples = 141<br/>value = [0, 0, 0, 141]<br/>class = Modus 3>, fillcolor="#d739e5"] ;
35 -> 51 ;
52 [label=<P_EL_Dem &le; 34.2<br/>gini = 0.273<br/>samples = 10625<br/>value = [506, 87, 8985, 1047]<br/>class = Modus 2>, fillcolor="#5baee9"] ;
34 -> 52 ;
53 [label=<Q_TWW &le; 2502.5<br/>gini = 0.176<br/>samples = 3239<br/>value = [102, 12, 2933, 192]<br/>class = Modus 2>, fillcolor="#4da7e8"] ;
52 -> 53 ;
54 [label=<gini = 0.163<br/>samples = 3214<br/>value = [102, 12, 2933, 167]<br/>class = Modus 2>, fillcolor="#4ba6e7"] ;
53 -> 54 ;
55 [label=<gini = 0.0<br/>samples = 25<br/>value = [0, 0, 0, 25]<br/>class = Modus 3>, fillcolor="#d739e5"] ;
53 -> 55 ;
56 [label=<Q_Hou_Dem &le; 951.465<br/>gini = 0.312<br/>samples = 7386<br/>value = [404, 75, 6052, 855]<br/>class = Modus 2>, fillcolor="#61b1ea"] ;
52 -> 56 ;
57 [label=<Q_Hou_Dem &le; 811.965<br/>gini = 0.398<br/>samples = 2841<br/>value = [202, 74, 2155, 410]<br/>class = Modus 2>, fillcolor="#71b9ec"] ;
56 -> 57 ;
58 [label=<Q_TWW &le; 2502.5<br/>gini = 0.538<br/>samples = 435<br/>value = [27, 43, 278, 87]<br/>class = Modus 2>, fillcolor="#92c9f1"] ;
57 -> 58 ;
59 [label=<gini = 0.499<br/>samples = 408<br/>value = [27, 43, 278, 60]<br/>class = Modus 2>, fillcolor="#83c2ef"] ;
58 -> 59 ;
60 [label=<gini = 0.0<br/>samples = 27<br/>value = [0, 0, 0, 27]<br/>class = Modus 3>, fillcolor="#d739e5"] ;
58 -> 60 ;
61 [label=<Q_TWW &le; 2502.5<br/>gini = 0.368<br/>samples = 2406<br/>value = [175, 31, 1877, 323]<br/>class = Modus 2>, fillcolor="#6bb6ec"] ;
57 -> 61 ;
62 [label=<gini = 0.331<br/>samples = 2323<br/>value = [175, 31, 1877, 240]<br/>class = Modus 2>, fillcolor="#63b2eb"] ;
61 -> 62 ;
63 [label=<gini = 0.0<br/>samples = 83<br/>value = [0, 0, 0, 83]<br/>class = Modus 3>, fillcolor="#d739e5"] ;
61 -> 63 ;
64 [label=<Q_TWW &le; 2502.5<br/>gini = 0.253<br/>samples = 4545<br/>value = [202, 1, 3897, 445]<br/>class = Modus 2>, fillcolor="#58ace9"] ;
56 -> 64 ;
65 [label=<Q_TWW &le; 52.5<br/>gini = 0.232<br/>samples = 4474<br/>value = [202, 1, 3897, 374]<br/>class = Modus 2>, fillcolor="#55abe9"] ;
64 -> 65 ;
66 [label=<gini = 0.203<br/>samples = 3335<br/>value = [147, 1, 2966, 221]<br/>class = Modus 2>, fillcolor="#50a9e8"] ;
65 -> 66 ;
67 [label=<gini = 0.312<br/>samples = 1139<br/>value = [55, 0, 931, 153]<br/>class = Modus 2>, fillcolor="#63b2ea"] ;
65 -> 67 ;
68 [label=<gini = 0.0<br/>samples = 71<br/>value = [0, 0, 0, 71]<br/>class = Modus 3>, fillcolor="#d739e5"] ;
64 -> 68 ;
}
