digraph Tree {
node [shape=box, style="filled, rounded", color="black", fontname="serif"] ;
edge [fontname="serif"] ;
rankdir=LR ;
0 [label=<Q_Hou_Dem &le; 481.66<br/>gini = 0.684<br/>samples = 35040<br/>value = [15014, 4574, 11052, 4400]<br/>class = Modus 0>, fillcolor="#fbeade"] ;
1 [label=<Q_TWW &le; 2502.5<br/>gini = 0.431<br/>samples = 18257<br/>value = [13408, 1720, 526, 2603]<br/>class = Modus 0>, fillcolor="#eda876"] ;
0 -> 1 [labeldistance=2.5, labelangle=-45, headlabel="True"] ;
2 [label=<T_Air &le; 285.53<br/>gini = 0.41<br/>samples = 17835<br/>value = [13408, 1720, 526, 2181]<br/>class = Modus 0>, fillcolor="#eca571"] ;
1 -> 2 ;
3 [label=<gini = 0.57<br/>samples = 4205<br/>value = [2375, 1350, 124, 356]<br/>class = Modus 0>, fillcolor="#f6d2b8"] ;
2 -> 3 ;
4 [label=<gini = 0.325<br/>samples = 13630<br/>value = [11033, 370, 402, 1825]<br/>class = Modus 0>, fillcolor="#eb9d65"] ;
2 -> 4 ;
5 [label=<gini = 0.0<br/>samples = 422<br/>value = [0, 0, 0, 422]<br/>class = Modus 3>, fillcolor="#d739e5"] ;
1 -> 5 ;
6 [label=<T_Air &le; 279.125<br/>gini = 0.557<br/>samples = 16783<br/>value = [1606, 2854, 10526, 1797]<br/>class = Modus 2>, fillcolor="#92c9f1"] ;
0 -> 6 [labeldistance=2.5, labelangle=45, headlabel="False"] ;
7 [label=<Q_Hou_Dem &le; 762.955<br/>gini = 0.415<br/>samples = 12169<br/>value = [1144, 598, 9125, 1302]<br/>class = Modus 2>, fillcolor="#70b8ec"] ;
6 -> 7 ;
8 [label=<gini = 0.057<br/>samples = 547<br/>value = [0, 531, 16, 0]<br/>class = Modus 1>, fillcolor="#4de63f"] ;
7 -> 8 ;
9 [label=<Q_TWW &le; 2502.5<br/>gini = 0.363<br/>samples = 11622<br/>value = [1144, 67, 9109, 1302]<br/>class = Modus 2>, fillcolor="#69b5eb"] ;
7 -> 9 ;
10 [label=<gini = 0.344<br/>samples = 11416<br/>value = [1144, 67, 9109, 1096]<br/>class = Modus 2>, fillcolor="#65b3eb"] ;
9 -> 10 ;
11 [label=<gini = 0.0<br/>samples = 206<br/>value = [0, 0, 0, 206]<br/>class = Modus 3>, fillcolor="#d739e5"] ;
9 -> 11 ;
12 [label=<Q_Hou_Dem &le; 775.555<br/>gini = 0.647<br/>samples = 4614<br/>value = [462, 2256, 1401, 495]<br/>class = Modus 1>, fillcolor="#cef8ca"] ;
6 -> 12 ;
13 [label=<Q_Hou_Dem &le; 582.98<br/>gini = 0.621<br/>samples = 4104<br/>value = [462, 2256, 942, 444]<br/>class = Modus 1>, fillcolor="#b3f4ad"] ;
12 -> 13 ;
14 [label=<gini = 0.704<br/>samples = 2889<br/>value = [462, 1143, 891, 393]<br/>class = Modus 1>, fillcolor="#e8fce6"] ;
13 -> 14 ;
15 [label=<gini = 0.157<br/>samples = 1215<br/>value = [0, 1113, 51, 51]<br/>class = Modus 1>, fillcolor="#57e74a"] ;
13 -> 15 ;
16 [label=<gini = 0.18<br/>samples = 510<br/>value = [0, 0, 459, 51]<br/>class = Modus 2>, fillcolor="#4fa8e8"] ;
12 -> 16 ;
}
