digraph Tree {
node [shape=box, style="filled, rounded", color="black", fontname="serif"] ;
edge [fontname="serif"] ;
rankdir=LR ;
0 [label=<Q_Hou_Dem &le; 385.71<br/>gini = 0.695<br/>samples = 34944<br/>value = [14593, 5408, 10568, 4375]<br/>class = Modus 0>, fillcolor="#fbeade"] ;
1 [label=<Q_TWW &le; 525.0<br/>gini = 0.418<br/>samples = 18047<br/>value = [13411, 1463, 471, 2702]<br/>class = Modus 0>, fillcolor="#eda775"] ;
0 -> 1 [labeldistance=2.5, labelangle=-45, headlabel="True"] ;
2 [label=<T_Air &le; 285.76<br/>gini = 0.385<br/>samples = 17290<br/>value = [13314, 1441, 463, 2072]<br/>class = Modus 0>, fillcolor="#eca26d"] ;
1 -> 2 ;
3 [label=<Q_Hou_Dem &le; 130.07<br/>gini = 0.567<br/>samples = 4473<br/>value = [2694, 1049, 213, 517]<br/>class = Modus 0>, fillcolor="#f3c2a0"] ;
2 -> 3 ;
4 [label=<P_PV &le; 36.76<br/>gini = 0.263<br/>samples = 1245<br/>value = [1061, 44, 24, 116]<br/>class = Modus 0>, fillcolor="#e99659"] ;
3 -> 4 ;
5 [label=<gini = 0.08<br/>samples = 924<br/>value = [886, 15, 0, 23]<br/>class = Modus 0>, fillcolor="#e68641"] ;
4 -> 5 ;
6 [label=<P_EL_Dem &le; 48.53<br/>gini = 0.605<br/>samples = 321<br/>value = [175, 29, 24, 93]<br/>class = Modus 0>, fillcolor="#f6d2b8"] ;
4 -> 6 ;
7 [label=<gini = 0.657<br/>samples = 111<br/>value = [38, 9, 14, 50]<br/>class = Modus 3>, fillcolor="#f8defb"] ;
6 -> 7 ;
8 [label=<P_PV &le; 281.18<br/>gini = 0.521<br/>samples = 210<br/>value = [137, 20, 10, 43]<br/>class = Modus 0>, fillcolor="#f0b890"] ;
6 -> 8 ;
9 [label=<gini = 0.273<br/>samples = 78<br/>value = [66, 4, 1, 7]<br/>class = Modus 0>, fillcolor="#e9965a"] ;
8 -> 9 ;
10 [label=<gini = 0.617<br/>samples = 132<br/>value = [71, 16, 9, 36]<br/>class = Modus 0>, fillcolor="#f6d1b7"] ;
8 -> 10 ;
11 [label=<P_PV &le; 229.5<br/>gini = 0.628<br/>samples = 3228<br/>value = [1633, 1005, 189, 401]<br/>class = Modus 0>, fillcolor="#f8dbc7"] ;
3 -> 11 ;
12 [label=<Q_Hou_Dem &le; 253.105<br/>gini = 0.56<br/>samples = 2392<br/>value = [1353, 810, 61, 168]<br/>class = Modus 0>, fillcolor="#f6d4bb"] ;
11 -> 12 ;
13 [label=<P_PV &le; 24.87<br/>gini = 0.473<br/>samples = 1048<br/>value = [721, 229, 22, 76]<br/>class = Modus 0>, fillcolor="#efb388"] ;
12 -> 13 ;
14 [label=<gini = 0.421<br/>samples = 773<br/>value = [562, 172, 14, 25]<br/>class = Modus 0>, fillcolor="#eead7f"] ;
13 -> 14 ;
15 [label=<gini = 0.588<br/>samples = 275<br/>value = [159, 57, 8, 51]<br/>class = Modus 0>, fillcolor="#f3c4a2"] ;
13 -> 15 ;
16 [label=<gini = 0.586<br/>samples = 1344<br/>value = [632, 581, 39, 92]<br/>class = Modus 0>, fillcolor="#fdf7f2"] ;
12 -> 16 ;
17 [label=<P_EL_Dem &le; 228.775<br/>gini = 0.732<br/>samples = 836<br/>value = [280, 195, 128, 233]<br/>class = Modus 0>, fillcolor="#fdf5f0"] ;
11 -> 17 ;
18 [label=<P_PV &le; 677.505<br/>gini = 0.723<br/>samples = 422<br/>value = [75, 84, 99, 164]<br/>class = Modus 3>, fillcolor="#f7d7fa"] ;
17 -> 18 ;
19 [label=<gini = 0.696<br/>samples = 329<br/>value = [39, 63, 85, 142]<br/>class = Modus 3>, fillcolor="#f6d1f9"] ;
18 -> 19 ;
20 [label=<gini = 0.721<br/>samples = 93<br/>value = [36, 21, 14, 22]<br/>class = Modus 0>, fillcolor="#fae6d8"] ;
18 -> 20 ;
21 [label=<P_PV &le; 481.365<br/>gini = 0.65<br/>samples = 414<br/>value = [205, 111, 29, 69]<br/>class = Modus 0>, fillcolor="#f7d8c2"] ;
17 -> 21 ;
22 [label=<gini = 0.564<br/>samples = 245<br/>value = [142, 75, 11, 17]<br/>class = Modus 0>, fillcolor="#f5cdb1"] ;
21 -> 22 ;
23 [label=<gini = 0.71<br/>samples = 169<br/>value = [63, 36, 18, 52]<br/>class = Modus 0>, fillcolor="#fdf3ec"] ;
21 -> 23 ;
24 [label=<Q_Hou_Dem &le; 0.005<br/>gini = 0.297<br/>samples = 12817<br/>value = [10620, 392, 250, 1555]<br/>class = Modus 0>, fillcolor="#ea9a60"] ;
2 -> 24 ;
25 [label=<P_PV &le; 50.855<br/>gini = 0.193<br/>samples = 9505<br/>value = [8483, 21, 10, 991]<br/>class = Modus 0>, fillcolor="#e89051"] ;
24 -> 25 ;
26 [label=<gini = 0.053<br/>samples = 4002<br/>value = [3894, 3, 0, 105]<br/>class = Modus 0>, fillcolor="#e6843e"] ;
25 -> 26 ;
27 [label=<P_EL_Dem &le; 125.485<br/>gini = 0.279<br/>samples = 5503<br/>value = [4589, 18, 10, 886]<br/>class = Modus 0>, fillcolor="#ea9a60"] ;
25 -> 27 ;
28 [label=<P_PV &le; 463.94<br/>gini = 0.335<br/>samples = 2890<br/>value = [2281, 10, 6, 593]<br/>class = Modus 0>, fillcolor="#eca26d"] ;
27 -> 28 ;
29 [label=<gini = 0.406<br/>samples = 1384<br/>value = [996, 4, 2, 382]<br/>class = Modus 0>, fillcolor="#efb286"] ;
28 -> 29 ;
30 [label=<gini = 0.252<br/>samples = 1506<br/>value = [1285, 6, 4, 211]<br/>class = Modus 0>, fillcolor="#e9975b"] ;
28 -> 30 ;
31 [label=<gini = 0.207<br/>samples = 2613<br/>value = [2308, 8, 4, 293]<br/>class = Modus 0>, fillcolor="#e89253"] ;
27 -> 31 ;
32 [label=<Q_Hou_Dem &le; 218.34<br/>gini = 0.537<br/>samples = 3312<br/>value = [2137, 371, 240, 564]<br/>class = Modus 0>, fillcolor="#f0b78e"] ;
24 -> 32 ;
33 [label=<P_EL_Dem &le; 162.395<br/>gini = 0.505<br/>samples = 3001<br/>value = [2024, 244, 230, 503]<br/>class = Modus 0>, fillcolor="#efb286"] ;
32 -> 33 ;
34 [label=<P_PV &le; 158.585<br/>gini = 0.558<br/>samples = 1732<br/>value = [1079, 134, 194, 325]<br/>class = Modus 0>, fillcolor="#f1bb95"] ;
33 -> 34 ;
35 [label=<gini = 0.281<br/>samples = 679<br/>value = [571, 63, 5, 40]<br/>class = Modus 0>, fillcolor="#ea975c"] ;
34 -> 35 ;
36 [label=<gini = 0.657<br/>samples = 1053<br/>value = [508, 71, 189, 285]<br/>class = Modus 0>, fillcolor="#f7dac6"] ;
34 -> 36 ;
37 [label=<P_PV &le; 368.045<br/>gini = 0.417<br/>samples = 1269<br/>value = [945, 110, 36, 178]<br/>class = Modus 0>, fillcolor="#eda674"] ;
33 -> 37 ;
38 [label=<gini = 0.257<br/>samples = 546<br/>value = [467, 54, 0, 25]<br/>class = Modus 0>, fillcolor="#e99559"] ;
37 -> 38 ;
39 [label=<gini = 0.51<br/>samples = 723<br/>value = [478, 56, 36, 153]<br/>class = Modus 0>, fillcolor="#f0b78e"] ;
37 -> 39 ;
40 [label=<P_PV &le; 127.135<br/>gini = 0.662<br/>samples = 311<br/>value = [113, 127, 10, 61]<br/>class = Modus 1>, fillcolor="#f2fdf1"] ;
32 -> 40 ;
41 [label=<gini = 0.593<br/>samples = 177<br/>value = [82, 76, 4, 15]<br/>class = Modus 0>, fillcolor="#fdf8f3"] ;
40 -> 41 ;
42 [label=<P_EL_Dem &le; 124.2<br/>gini = 0.682<br/>samples = 134<br/>value = [31, 51, 6, 46]<br/>class = Modus 1>, fillcolor="#f5fef4"] ;
40 -> 42 ;
43 [label=<gini = 0.567<br/>samples = 66<br/>value = [2, 20, 6, 38]<br/>class = Modus 3>, fillcolor="#efb2f5"] ;
42 -> 43 ;
44 [label=<gini = 0.596<br/>samples = 68<br/>value = [29, 31, 0, 8]<br/>class = Modus 1>, fillcolor="#f6fef5"] ;
42 -> 44 ;
45 [label=<Q_TWW &le; 1067.5<br/>gini = 0.29<br/>samples = 757<br/>value = [97, 22, 8, 630]<br/>class = Modus 3>, fillcolor="#df5fea"] ;
1 -> 45 ;
46 [label=<P_PV &le; 57.92<br/>gini = 0.547<br/>samples = 180<br/>value = [61, 11, 4, 104]<br/>class = Modus 3>, fillcolor="#f1b7f6"] ;
45 -> 46 ;
47 [label=<gini = 0.618<br/>samples = 58<br/>value = [29, 9, 1, 19]<br/>class = Modus 0>, fillcolor="#f8dfcc"] ;
46 -> 47 ;
48 [label=<gini = 0.445<br/>samples = 122<br/>value = [32, 2, 3, 85]<br/>class = Modus 3>, fillcolor="#e78af0"] ;
46 -> 48 ;
49 [label=<Q_TWW &le; 2502.5<br/>gini = 0.165<br/>samples = 577<br/>value = [36, 11, 4, 526]<br/>class = Modus 3>, fillcolor="#db4ce7"] ;
45 -> 49 ;
50 [label=<T_Air &le; 289.485<br/>gini = 0.353<br/>samples = 196<br/>value = [26, 11, 4, 155]<br/>class = Modus 3>, fillcolor="#e169eb"] ;
49 -> 50 ;
51 [label=<gini = 0.638<br/>samples = 69<br/>value = [19, 11, 4, 35]<br/>class = Modus 3>, fillcolor="#f2c0f7"] ;
50 -> 51 ;
52 [label=<gini = 0.104<br/>samples = 127<br/>value = [7, 0, 0, 120]<br/>class = Modus 3>, fillcolor="#d945e7"] ;
50 -> 52 ;
53 [label=<gini = 0.051<br/>samples = 381<br/>value = [10, 0, 0, 371]<br/>class = Modus 3>, fillcolor="#d83ee6"] ;
49 -> 53 ;
54 [label=<T_Air &le; 277.225<br/>gini = 0.574<br/>samples = 16897<br/>value = [1182, 3945, 10097, 1673]<br/>class = Modus 2>, fillcolor="#a1d0f3"] ;
0 -> 54 [labeldistance=2.5, labelangle=45, headlabel="False"] ;
55 [label=<Q_Hou_Dem &le; 784.155<br/>gini = 0.38<br/>samples = 9568<br/>value = [460, 766, 7422, 920]<br/>class = Modus 2>, fillcolor="#6ab5eb"] ;
54 -> 55 ;
56 [label=<Q_TWW &le; 2502.5<br/>gini = 0.537<br/>samples = 1137<br/>value = [71, 728, 223, 115]<br/>class = Modus 1>, fillcolor="#99f192"] ;
55 -> 56 ;
57 [label=<Q_Hou_Dem &le; 572.465<br/>gini = 0.514<br/>samples = 1103<br/>value = [71, 728, 223, 81]<br/>class = Modus 1>, fillcolor="#95f08d"] ;
56 -> 57 ;
58 [label=<gini = 0.725<br/>samples = 228<br/>value = [51, 75, 72, 30]<br/>class = Modus 1>, fillcolor="#fbfefb"] ;
57 -> 58 ;
59 [label=<P_EL_Dem &le; 57.895<br/>gini = 0.409<br/>samples = 875<br/>value = [20, 653, 151, 51]<br/>class = Modus 1>, fillcolor="#7fed76"] ;
57 -> 59 ;
60 [label=<P_PV &le; 217.185<br/>gini = 0.196<br/>samples = 364<br/>value = [4, 325, 29, 6]<br/>class = Modus 1>, fillcolor="#5ce850"] ;
59 -> 60 ;
61 [label=<gini = 0.137<br/>samples = 332<br/>value = [4, 308, 17, 3]<br/>class = Modus 1>, fillcolor="#55e748"] ;
60 -> 61 ;
62 [label=<gini = 0.568<br/>samples = 32<br/>value = [0, 17, 12, 3]<br/>class = Modus 1>, fillcolor="#d1f8ce"] ;
60 -> 62 ;
63 [label=<Q_Hou_Dem &le; 752.075<br/>gini = 0.522<br/>samples = 511<br/>value = [16, 328, 122, 45]<br/>class = Modus 1>, fillcolor="#9ef196"] ;
59 -> 63 ;
64 [label=<gini = 0.422<br/>samples = 376<br/>value = [10, 278, 59, 29]<br/>class = Modus 1>, fillcolor="#80ed76"] ;
63 -> 64 ;
65 [label=<gini = 0.629<br/>samples = 135<br/>value = [6, 50, 63, 16]<br/>class = Modus 2>, fillcolor="#e1f0fb"] ;
63 -> 65 ;
66 [label=<gini = 0.0<br/>samples = 34<br/>value = [0, 0, 0, 34]<br/>class = Modus 3>, fillcolor="#d739e5"] ;
56 -> 66 ;
67 [label=<Q_TWW &le; 2502.5<br/>gini = 0.26<br/>samples = 8431<br/>value = [389, 38, 7199, 805]<br/>class = Modus 2>, fillcolor="#59ade9"] ;
55 -> 67 ;
68 [label=<Q_TWW &le; 52.5<br/>gini = 0.235<br/>samples = 8276<br/>value = [389, 38, 7199, 650]<br/>class = Modus 2>, fillcolor="#55abe9"] ;
67 -> 68 ;
69 [label=<Q_Hou_Dem &le; 1024.315<br/>gini = 0.206<br/>samples = 6548<br/>value = [299, 24, 5812, 413]<br/>class = Modus 2>, fillcolor="#51a9e8"] ;
68 -> 69 ;
70 [label=<gini = 0.257<br/>samples = 2909<br/>value = [212, 23, 2492, 182]<br/>class = Modus 2>, fillcolor="#58ace9"] ;
69 -> 70 ;
71 [label=<gini = 0.163<br/>samples = 3639<br/>value = [87, 1, 3320, 231]<br/>class = Modus 2>, fillcolor="#4ca6e7"] ;
69 -> 71 ;
72 [label=<P_PV &le; 0.935<br/>gini = 0.334<br/>samples = 1728<br/>value = [90, 14, 1387, 237]<br/>class = Modus 2>, fillcolor="#66b3eb"] ;
68 -> 72 ;
73 [label=<gini = 0.277<br/>samples = 960<br/>value = [50, 7, 809, 94]<br/>class = Modus 2>, fillcolor="#5caeea"] ;
72 -> 73 ;
74 [label=<gini = 0.396<br/>samples = 768<br/>value = [40, 7, 578, 143]<br/>class = Modus 2>, fillcolor="#75bbed"] ;
72 -> 74 ;
75 [label=<gini = 0.0<br/>samples = 155<br/>value = [0, 0, 0, 155]<br/>class = Modus 3>, fillcolor="#d739e5"] ;
67 -> 75 ;
76 [label=<Q_Hou_Dem &le; 782.03<br/>gini = 0.658<br/>samples = 7329<br/>value = [722, 3179, 2675, 753]<br/>class = Modus 1>, fillcolor="#ebfcea"] ;
54 -> 76 ;
77 [label=<Q_Hou_Dem &le; 563.315<br/>gini = 0.573<br/>samples = 5127<br/>value = [604, 3132, 885, 506]<br/>class = Modus 1>, fillcolor="#9ef196"] ;
76 -> 77 ;
78 [label=<Q_TWW &le; 2502.5<br/>gini = 0.71<br/>samples = 2488<br/>value = [566, 1000, 614, 308]<br/>class = Modus 1>, fillcolor="#d9fad6"] ;
77 -> 78 ;
79 [label=<P_PV &le; 63.475<br/>gini = 0.707<br/>samples = 2460<br/>value = [566, 1000, 614, 280]<br/>class = Modus 1>, fillcolor="#d9fad6"] ;
78 -> 79 ;
80 [label=<Q_Hou_Dem &le; 493.4<br/>gini = 0.683<br/>samples = 1649<br/>value = [438, 710, 393, 108]<br/>class = Modus 1>, fillcolor="#d6f9d3"] ;
79 -> 80 ;
81 [label=<gini = 0.695<br/>samples = 903<br/>value = [293, 338, 213, 59]<br/>class = Modus 1>, fillcolor="#f1fdf0"] ;
80 -> 81 ;
82 [label=<gini = 0.651<br/>samples = 746<br/>value = [145, 372, 180, 49]<br/>class = Modus 1>, fillcolor="#c1f6bc"] ;
80 -> 82 ;
83 [label=<P_EL_Dem &le; 193.36<br/>gini = 0.728<br/>samples = 811<br/>value = [128, 290, 221, 172]<br/>class = Modus 1>, fillcolor="#e9fce8"] ;
79 -> 83 ;
84 [label=<gini = 0.689<br/>samples = 347<br/>value = [13, 105, 117, 112]<br/>class = Modus 2>, fillcolor="#fbfdfe"] ;
83 -> 84 ;
85 [label=<gini = 0.713<br/>samples = 464<br/>value = [115, 185, 104, 60]<br/>class = Modus 1>, fillcolor="#dafad7"] ;
83 -> 85 ;
86 [label=<gini = 0.0<br/>samples = 28<br/>value = [0, 0, 0, 28]<br/>class = Modus 3>, fillcolor="#d739e5"] ;
78 -> 86 ;
87 [label=<Q_TWW &le; 2502.5<br/>gini = 0.331<br/>samples = 2639<br/>value = [38, 2132, 271, 198]<br/>class = Modus 1>, fillcolor="#6eeb63"] ;
77 -> 87 ;
88 [label=<Q_Hou_Dem &le; 769.135<br/>gini = 0.293<br/>samples = 2561<br/>value = [38, 2132, 271, 120]<br/>class = Modus 1>, fillcolor="#69ea5e"] ;
87 -> 88 ;
89 [label=<P_PV &le; 403.61<br/>gini = 0.264<br/>samples = 2424<br/>value = [33, 2064, 226, 101]<br/>class = Modus 1>, fillcolor="#65e959"] ;
88 -> 89 ;
90 [label=<gini = 0.249<br/>samples = 2390<br/>value = [33, 2058, 208, 91]<br/>class = Modus 1>, fillcolor="#63e957"] ;
89 -> 90 ;
91 [label=<gini = 0.602<br/>samples = 34<br/>value = [0, 6, 18, 10]<br/>class = Modus 2>, fillcolor="#bddef6"] ;
89 -> 91 ;
92 [label=<gini = 0.625<br/>samples = 137<br/>value = [5, 68, 45, 19]<br/>class = Modus 1>, fillcolor="#d1f8ce"] ;
88 -> 92 ;
93 [label=<gini = 0.0<br/>samples = 78<br/>value = [0, 0, 0, 78]<br/>class = Modus 3>, fillcolor="#d739e5"] ;
87 -> 93 ;
94 [label=<Q_TWW &le; 2502.5<br/>gini = 0.323<br/>samples = 2202<br/>value = [118, 47, 1790, 247]<br/>class = Modus 2>, fillcolor="#63b2ea"] ;
76 -> 94 ;
95 [label=<Q_TWW &le; 210.0<br/>gini = 0.295<br/>samples = 2150<br/>value = [118, 47, 1790, 195]<br/>class = Modus 2>, fillcolor="#5dafea"] ;
94 -> 95 ;
96 [label=<P_EL_Dem &le; 37.64<br/>gini = 0.283<br/>samples = 2089<br/>value = [114, 45, 1756, 174]<br/>class = Modus 2>, fillcolor="#5baeea"] ;
95 -> 96 ;
97 [label=<gini = 0.166<br/>samples = 746<br/>value = [23, 11, 680, 32]<br/>class = Modus 2>, fillcolor="#4ba6e7"] ;
96 -> 97 ;
98 [label=<gini = 0.342<br/>samples = 1343<br/>value = [91, 34, 1076, 142]<br/>class = Modus 2>, fillcolor="#65b3eb"] ;
96 -> 98 ;
99 [label=<gini = 0.565<br/>samples = 61<br/>value = [4, 2, 34, 21]<br/>class = Modus 2>, fillcolor="#bfdff7"] ;
95 -> 99 ;
100 [label=<gini = 0.0<br/>samples = 52<br/>value = [0, 0, 0, 52]<br/>class = Modus 3>, fillcolor="#d739e5"] ;
94 -> 100 ;
}
